{"Layers":[{"Neurons":[{"Bias":3.4245262,"Weights":[0.58485544,0.5728652,0.6522481,0.3685794,-0.39279166,-1.3460193,0.51435703,1.2249403,-1.3704829,0.7597616,-0.18054628,-0.025363952,0.24409866,1.9596899,2.147626,3.1123056,-1.6802171,1.7929114,-1.551584,0.2558344,2.9778469,1.3508651,-0.11512196,0.96672493,-2.0900984,-0.5004961,3.9347837,-0.6319207,0.06707698,1.7802815,2.1226206,2.343779]},{"Bias":-0.40551317,"Weights":[-2.0185018,4.241696,-0.92863286,-2.2337794,0.1,-0.6205223,-0.24194646,3.1576114,-0.68938553,0.8330628,-0.5972909,0.3085096,-2.9128668,-0.4629894,-1.6669612,5.1320715,-2.130642,6.592824,-0.90117705,1.5549514,0.529027,-0.67402494,-4.818836,0.34115145,0.7278563,0.33388883,0.31587702,5.1665325,1.888113,-0.22656941,1.77065,-3.4371276]},{"Bias":-1.3646759,"Weights":[0.18652439,-1.2010319,3.6246464,1.2125928,0.1579386,0.14014757,-0.88,-1.3357105,0.70602846,3.718534,-2.426059,-0.66,0.7717641,0.811799,1.5110013,-0.2959373,-0.84975797,0.57,2.2996278,1.2925782,-2.6895833,0.6738198,-1.4806507,1.5288463,-0.8056898,-0.34467614,-0.76856935,0.43,-1.6810615,2.0153713,1.156717,-1.1034831]},{"Bias":-0.34803167,"Weights":[-6.4886827,-0.2446675,0.60033786,0.5185446,0.35260183,3.6064026,1.8980856,-0.41266525,-0.6809503,0.40568602,-0.61,-1.4782572,3.1947377,-0.4161594,-0.3215946,-0.5152178,-0.98430645,2.8179018,-1.9141991,-1.5580151,-2.9293284,-0.82390636,-1.6610229,0.8380888,-0.9452454,-1.9230444,2.346936,0.5141678,2.4138565,0.89114887,-1.0562471,0.91]},{"Bias":-1.2091988,"Weights":[2.373266,-3.906647,0.04314795,0.5080279,-1.9194199,-3.910681,1.2585061,-1.7583048,3.2508354,-1.3636755,-3.503033,3.8760126,-3.4234793,2.4543014,2.02918,-1.8243575,-2.73412,-1.1311457,-3.572928,1.2568457,0.4339437,-1.6362159,0.8840494,3.1762972,-2.4785697,0.9642622,2.9830165,0.31601125,3.5956206,0.12202287,2.0976052,-3.7256215]},{"Bias":-0.18529922,"Weights":[-3.4160423,-2.0005252,1.5326908,-0.3683405,0.49836683,-3.512954,2.1332912,3.2632854,-1.8382108,-3.202714,3.946891,-0.27369854,0.006519377,-2.7221546,1.8772624,0.94000125,-0.5351757,0.26482028,0.07910125,1.1575975,-1.7436213,2.569873,-0.87544656,-0.75473577,-1.0124445,-0.98611355,-1.271721,0.28628922,-0.77139354,0.7858622,-2.9268606,-0.572973]},{"Bias":1.5237663,"Weights":[2.5545802,-1.6959875,-4.056952,-3.8993788,1.931944,-1.5703671,1.4747263,0.5848941,-0.7283126,-0.04622078,-1.1787827,-0.6270915,0.8517689,1.7016858,1.2814972,-3.1090505,2.0287123,-1.0743749,-0.030339003,-0.05697882,1.9645876,3.068841,3.3853514,-0.25456518,-0.24974248,-0.007718079,-0.20648643,-0.49336874,-1.3450062,0.5168697,1.150779,1.1874001]},{"Bias":-2.1933138,"Weights":[-0.0063430667,1.4671613,1.7654402,-0.75304055,-0.6176863,2.9193227,2.0329638,2.3851473,-0.085274786,-0.13590568,0.3788417,-0.6149672,0.69,-0.6032516,-0.444154,-0.105289,1.3872067,1.4626882,0.49237424,0.2909574,-2.7872803,-1.974889,3.0688844,-1.0834596,-1.2855638,0.4378953,1.4055549,2.8725326,0.554012,3.5694103,-3.125526,2.0289836]},{"Bias":1.9640017,"Weights":[3.6020324,-1.6349616,-2.5812137,-0.933385,-2.0413609,-1.6836444,-0.06276207,0.46565342,1.6068482,-0.91478646,0.51162314,0.44573203,-2.7827225,0.32931745,0.80576164,-0.35256165,1.3729875,-2.094015,-0.60838234,-1.3195056,0.8299229,1.4584644,-4.186819,0.95510435,4.0985565,-0.7920757,2.2331495,2.4429767,-0.83307505,2.8222666,-2.5336738,-3.0734816]},{"Bias":0.9863647,"Weights":[0.98472524,5.3313074,1.350344,0.38245612,1.3851411,0.6057567,-1.2189873,1.584406,-0.6650664,-0.9750712,-5.9669113,2.2815359,-1.125427,1.9872705,-1.9323931,3.7324433,-1.7388451,0.43868428,3.2667422,1.4967052,-0.40907985,0.4199082,-2.6764932,4.701794,1.5642715,-0.9972255,2.6158667,-0.15247518,-2.6828794,3.8135624,-4.21703,0.21]},{"Bias":1.9186668,"Weights":[-0.1969356,-1.3213971,-2.325967,-0.18620607,-2.5609417,-2.366166,-3.9716105,1.2597165,2.9246945,5.9091716,-0.8626348,-1.4779351,-0.8609192,-1.9121019,0.35267332,-0.81934434,0.09606576,-0.5131839,-4.7203026,0.7683636,-4.021273,-4.3952403,-0.26627427,-0.22793937,5.4255223,0.22010083,0.06478417,1.5717518,1.6228346,0.00862211,2.5348475,1.1191088]},{"Bias":-0.6061505,"Weights":[-2.0351558,3.412606,1.2716234,-0.5188029,1.13738,0.9134269,0.40648234,-0.5262854,-0.53402257,-4.267308,1.5122138,-2.2775118,-1.5430272,-1.629582,3.088833,-1.9955034,1.4211555,-0.46,-0.0037437081,-3.2330532,-2.0698714,0.072491944,-0.8771432,-0.37806734,0.39997756,0.19829524,4.157238,-0.3625337,0.68480784,-2.282776,5.1694756,0.512814]},{"Bias":-0.67519355,"Weights":[1.5569197,1.764401,1.506711,3.165019,4.674485,-0.61946774,-2.5559285,-2.584436,2.0801072,2.674083,0.3715387,-0.5804941,2.3051095,0.7092865,-0.2976843,-2.5723007,3.4302814,0.9120079,-0.040104583,1.2335329,3.1328096,-5.5236926,1.4194653,1.8013976,0.13556938,-0.9293977,-0.82587564,-2.2782161,1.9241363,-3.1061516,1.9296635,-4.3378863]},{"Bias":2.0234494,"Weights":[-1.6621431,-0.25851607,0.10331178,1.6863132,0.09018585,0.11003864,1.5168972,0.24395955,1.9531062,-3.5590498,-0.84656405,-1.9162486,0.8546097,0.105731905,0.53657913,2.3379548,-2.2122803,-5.338768,-0.15947324,0.275414,-2.7990277,0.61928594,-2.558973,2.1102924,1.6841918,-2.6095827,1.466182,1.947457,-0.5852315,-2.072842,3.0219908,0.47364298]},{"Bias":-0.20237094,"Weights":[-2.6302004,-1.7644832,0.66562986,1.1659839,0.34122187,-2.1588793,0.6839493,0.41422442,1.8548683,-0.88398767,0.3304774,0.9079658,0.7860807,-0.4184245,-1.4511843,3.3831615,-2.9002042,-1.3550978,-0.78904516,-2.3391783,-3.8750007,0.034315765,-1.2904378,-1.940973,-2.0055008,0.08620107,3.7082853,3.5495925,0.0055574775,4.344994,1.4757117,2.0596607]},{"Bias":0.9242488,"Weights":[-2.4883614,-0.26228082,-0.14784735,-1.5550811,4.137256,-1.9676639,0.7069251,-2.8677075,1.1449302,-0.69232,0.55015427,1.7316333,-2.8231711,1.0022475,-0.71,0.57125485,2.3922896,-3.756257,1.7780802,0.6558493,-0.7532814,-4.6065555,0.035495013,0.8421416,1.5506723,0.40194553,1.5300541,-1.4390041,1.4032316,1.3061575,0.91810995,0.7335278]},{"Bias":-1.4800448,"Weights":[-0.22004777,2.8759375,-0.30797368,0.5617815,1.9535325,0.2937969,0.50092757,-0.23038489,-0.674885,-0.4891113,0.87590164,-2.0697756,-4.1006603,-2.2418709,-0.032881618,1.1027902,-0.7823373,1.284861,3.7380836,1.2707504,0.104232684,0.53470373,-1.2160535,-0.00023685396,0.76022166,-0.6563221,1.7610372,-1.3669963,0.32002723,3.6098115,-0.47354966,1.2329655]},{"Bias":1.7602786,"Weights":[0.7507098,1.0386959,-0.772935,-4.2490687,-1.0115504,2.7084367,1.274076,-4.164565,-1.3741572,-1.147446,0.869663,-1.5503154,-1.8719016,1.8222415,1.6417928,-6.8342037,1.1460481,0.27558094,-2.986319,-2.6523757,0.7904285,2.7248929,0.1891117,-0.70752347,3.3579855,-0.55312955,-1.7201519,0.13693231,1.457416,-1.8295608,-0.19078374,-0.51]},{"Bias":1.6678098,"Weights":[-2.1036875,3.596812,0.7929749,-2.7995806,-0.8917219,-1.3266424,-0.5786262,-0.18951142,-0.5343945,0.82753956,1.9132679,1.7631949,-1.3095802,-0.61691546,-1.1618537,-0.37228477,1.4923617,-2.0453482,-0.7,-0.9090181,-2.5530236,1.2622496,-2.552419,0.90417194,1.4531316,0.72525066,-0.9501893,2.0848553,-0.0042877644,2.6565933,2.9795554,-0.09508681]},{"Bias":1.0447516,"Weights":[-1.7800652,0.059304774,1.6509213,4.492715,-0.07737672,-0.6571102,8.464165,1.1538312,-1.9304297,-2.4673674,-0.005246125,3.3212566,5.0730925,0.619159,1.2962227,-1.0680467,1.4280169,-2.2069738,1.1914885,-1.2823215,1.4235097,0.2833727,4.444911,-3.1995354,-0.82,2.4596,-2.100839,0.44184175,0.60810614,0.20614028,-1.7755189,-3.5901077]},{"Bias":1.7218574,"Weights":[-4.607705,1.7259051,-0.7798933,-5.418406,-1.2620122,-3.8452015,0.0971418,-1.6281888,0.279204,3.01073,1.3999606,0.7930318,-2.038185,-1.7507954,-0.10143837,2.7093344,-2.161573,0.13915128,-2.0985248,0.068671465,-0.059331626,0.25028145,0.13417387,-1.1485913,3.013425,0.11227414,-1.5808238,1.3131604,-1.0064089,0.5286023,1.4260567,2.075053]},{"Bias":2.9111624,"Weights":[2.6209006,-0.4125739,2.006517,0.56198066,0.14965954,-0.5401997,-1.3818194,2.4747076,-1.5368688,-1.2762709,0.9020633,-1.6468611,4.3123107,-0.20937738,-4.366551,-1.3548329,3.0744843,-1.2319474,0.9318156,-2.4514406,-0.15922141,-0.48966846,0.6100762,-0.970738,-3.8604882,0.6765848,0.12840801,2.8752754,1.6554366,-1.7467608,-3.0461993,-0.14804453]},{"Bias":-2.6796212,"Weights":[0.5652894,-1.4354174,0.30976313,-0.35936368,0.9369445,3.3779337,3.470104,0.16943279,2.7838488,-0.16945153,-0.55894667,0.22,0.9813199,1.0109768,2.0152035,0.08393097,-1.85176,3.5050087,-1.7680361,2.6090007,0.18955564,-2.1627488,-1.0981216,3.7789779,-1.4591143,0.062131137,-0.15895158,2.757444,-1.0731117,0.5377038,-1.1266732,-3.2377517]},{"Bias":-5.0348988,"Weights":[0.075415194,1.589235,-2.606171,-0.21935466,-1.133471,-0.61709464,-0.66023856,0.959352,0.9851792,-0.69961023,0.9113241,-0.698452,1.8410372,-2.7602794,1.6837912,-3.1980424,0.4280498,-3.058041,0.5045353,0.01720567,-0.64497954,0.14539313,1.8146701,0.46578276,0.8799454,-0.25378215,-3.5704026,1.1554381,-1.7190588,-0.0039687604,1.7124116,-0.7747997]}]},{"Neurons":[{"Bias":-5.780569,"Weights":[0.6814092,1.8435726,-2.2881455,-1.818367,1.3708601,-0.6101101,-1.6609213,1.2483838,-0.023368955,-0.6581287,1.4398413,1.9969416,-0.055225253,0.697989,2.9832678,6.284309,-0.09002727,-1.9360461,1.0385758,-2.2002745,0.50225854,1.2068202,1.4802182,-3.3719873]},{"Bias":2.4033659,"Weights":[-0.08570436,0.39,-1.0171404,4.3436193,-0.26493296,3.7443552,-0.16504449,-0.92358077,2.068583,-4.562618,0.5435656,-1.0836983,-2.345833,-0.93418515,-2.4684575,1.9512689,-0.4998445,0.8354193,-1.77967,3.1168149,0.3044471,0.69741195,4.1954947,-2.5914612]},{"Bias":-4.2541885,"Weights":[-0.68478787,-0.9091456,1.1404465,-3.3698106,1.1548624,1.3583052,1.8055153,5.3881793,0.19353521,-3.3691492,2.5574439,0.98755294,-3.909128,-2.8503027,-2.6699185,2.0418735,-0.08803837,-0.7239673,-0.1807257,-4.4064527,0.07120325,-2.7618315,0.29331064,-1.5261135]},{"Bias":-0.30527782,"Weights":[-0.07882434,-1.0356611,-1.7932512,-0.90482223,0.09484016,-0.56322324,-1.7170671,0.82088554,0.3696989,0.9034736,-1.1558094,-0.9318606,0.40767884,-3.0740566,0.11292803,-4.661028,-1.2000687,0.9098969,-2.8674574,-0.94621116,0.72079784,-0.75788003,-3.0186856,1.7928722]},{"Bias":4.5533247,"Weights":[0.30204397,1.3738856,-1.9977249,1.6843021,1.2242606,-4.789977,4.027754,2.5285242,3.1029239,-0.8743626,0.64614785,-0.81428415,0.18,2.3601954,3.8173208,-1.5770856,1.6588236,-0.2526015,-0.32058376,0.4577859,3.413495,-0.2142666,0.17285657,1.7675847]},{"Bias":-3.1998565,"Weights":[1.8767284,0.27251887,-0.2882464,-0.5493835,-0.94325453,0.07618445,1.6424596,1.2888561,0.618294,2.1813707,1.5611365,1.1425118,6.5131884,-0.5006783,2.17586,0.59221196,0.86796474,4.1510735,-1.502631,-1.9420999,-0.15095925,1.2325678,2.4887402,-0.4984305]},{"Bias":-0.85116386,"Weights":[0.22133976,1.6967453,-0.5292101,-0.10219622,-2.308085,2.0329995,-1.1280605,-1.8007201,0.1521551,2.4474401,-1.9927685,-0.96546316,-0.014894724,-2.0219128,0.45040333,0.3706978,-1.611112,3.8846579,-3.725327,0.33103716,0.90825903,3.9013388,-2.1792808,-1.6819699]},{"Bias":0.22650649,"Weights":[-0.35042417,-0.409786,1.6835476,-0.5878594,1.2744663,1.2049057,-1.4313571,-1.5520915,1.231267,-0.5474579,-0.9916015,-2.9194958,0.1699056,-0.75766176,0.8989296,-1.3086038,1.5436993,0.7625506,3.2955372,2.0643468,2.8916757,-2.1657758,-1.2908876,1.125542]},{"Bias":1.0233109,"Weights":[-0.315009,-2.1569042,-3.1202652,-0.03,1.1865517,-2.3419547,-2.7749634,-0.7003672,1.0356907,0.64726853,-1.2465141,-0.4538715,-2.8407674,0.40180635,-0.1362913,-0.7297971,1.8124306,3.1873841,-2.5296366,-1.2660184,-0.6033223,-0.41374788,-0.8046005,-1.415472]},{"Bias":1.2482964,"Weights":[1.4611095,-2.2929187,-0.70425695,-0.016632795,-0.38348567,0.9853684,0.72131693,-0.4474465,1.232877,0.16416743,3.594909,-2.3637094,-1.5985746,-1.8573017,0.35754448,-0.78024995,-0.9426497,-0.41470897,1.0754901,1.0822909,-0.20570937,4.4473176,0.26665038,-2.1482146]},{"Bias":0.93122137,"Weights":[0.30949742,-0.93168426,0.2,-0.80965996,0.86234987,-0.14070311,-2.1719615,0.5739584,4.1767006,-3.090763,0.78816473,-3.1415963,0.3282911,-0.25881195,-1.5721954,-2.7900665,1.1441954,2.4617453,1.0000466,-0.8497189,-1.4634664,2.091133,-2.2806115,-0.36368433]},{"Bias":-0.8381345,"Weights":[-1.6897833,-3.3424978,-2.5380116,0.33166254,-0.5003283,-2.515123,1.961,0.8956399,-1.2078938,-1.7615564,-2.953202,-3.6367478,2.9832113,1.3838824,0.39813933,-0.18114758,0.56685925,1.2329398,-1.983709,3.98711,-0.3171848,0.9959434,-0.9230337,3.7909508]},{"Bias":1.8693501,"Weights":[-0.28046042,-0.07287407,-5.5740275,0.77832365,-0.7529007,-1.8180838,-2.0942538,0.611278,0.8,-0.017720446,4.7549253,4.225733,-1.8395286,0.63028145,-3.4432976,0.41794077,-0.0898878,-0.7534096,1.7750515,-0.8951095,1.7658918,2.5064845,0.45104903,0.8231673]},{"Bias":-1.3251321,"Weights":[1.5050952,-0.32553017,-1.4996395,0.9902868,-0.8596915,1.5308334,0.8591127,0.8763921,0.7431127,-0.19,2.3017888,-3.10493,-2.1496387,0.15510857,-1.835606,-0.056122422,1.8431063,1.9142064,1.394552,-1.0501782,1.9856064,2.2014613,1.0806527,0.056056917]},{"Bias":-1.6591489,"Weights":[-1.6120259,1.7851667,-2.1528425,0.78307486,1.0649408,-0.0989404,-3.5179384,1.9226944,0.6477983,-1.4074851,-0.20252204,-2.4391763,-0.51617706,0.17124808,0.14579695,-0.75689554,-2.7959943,1.267209,-1.0124984,-0.7535914,1.6358376,1.0034987,-0.3075407,-0.3249164]},{"Bias":2.8811612,"Weights":[2.9579577,-3.4899373,1.6535411,-1.4206859,1.0635067,6.7410097,0.8426698,2.4447167,-0.70299727,0.80360806,0.60529053,1.177215,1.0128076,1.059251,-2.1635299,-0.36,-1.1906176,3.949491,0.8121101,0.8512689,-1.0688572,-1.3434163,-0.3812757,-2.9001782]},{"Bias":-4.368724,"Weights":[0.8673471,1.1386383,-0.96649814,-2.2034273,1.9910991,-0.41903397,0.77,-0.033875525,-1.5499816,1.8060907,-0.2779839,0.531461,-2.5857592,2.6054442,2.3973222,-1.8918763,0.5517627,0.4650005,0.7227018,-0.4411844,-0.8877121,-3.7776592,1.5602976,-3.3816934]},{"Bias":-1.9643419,"Weights":[-0.4658833,-4.1289873,0.020722076,0.56099993,0.7593179,3.4068394,3.0287342,-2.5025544,1.5365627,2.1491504,-1.7674357,-0.42,3.5933487,1.5881,-0.33429652,-0.9231053,-1.4442885,0.12254834,0.83630013,-1.197043,-0.6019963,0.00092080235,-1.4843329,0.13636738]},{"Bias":0.62143034,"Weights":[2.5708716,-1.5009041,0.17046446,1.9993842,0.03616929,0.47310424,0.87438357,0.9425594,1.527088,1.0696222,0.6746776,-1.6327492,-0.30993685,-4.9266148,-4.759673,-0.7335367,2.0402696,-0.3794964,-1.9741936,1.0724264,1.4505616,0.13357472,1.438055,1.2784115]},{"Bias":-1.0530161,"Weights":[-0.5534395,-4.855146,-0.2322617,-0.36884475,0.21868193,-2.468896,-0.45829725,-2.5589104,-0.5325757,-0.7780199,1.0245873,0.09038475,-1.666895,-1.459821,1.1263242,-0.55743146,2.0274098,0.09676422,-0.6221874,-0.5950573,0.59516,3.151865,-0.61124015,-1.5809696]},{"Bias":1.7296209,"Weights":[0.13157737,-0.56057036,1.7213365,-1.1975894,-1.7988911,-1.1238767,-1.3037297,-1.7014266,1.1896275,-0.83192676,4.2084827,0.20430946,-1.5076034,0.5800143,-0.52189726,-0.31682485,2.958975,-0.23805434,2.9985483,-2.6637492,-3.4027357,-0.5595157,-2.2513375,-2.4220328]},{"Bias":0.2614317,"Weights":[-3.8658133,-3.3821864,-2.4306707,3.2666445,-1.9162753,2.622466,0.16700917,2.113627,-1.250349,0.6616006,0.41741621,-0.26110113,-2.5940158,-0.98135066,0.5509625,0.3682434,-1.7366743,0.69285464,0.20850635,-0.96498513,-0.7762039,1.0668471,-2.222043,1.3467298]},{"Bias":-6.48616,"Weights":[2.5876775,0.4428379,-1.4550991,-3.791088,-1.8053896,-1.8294765,-0.30091316,0.17028415,-0.88134,-0.360606,0.47534502,2.079912,-0.14528623,0.8453969,-4.127727,0.92455584,2.951148,-0.37823224,1.3383936,1.923597,-2.5056162,-3.0330918,2.0083108,0.049042255]},{"Bias":2.0542226,"Weights":[-1.5830054,-0.12992878,1.095102,-0.7812498,1.4249995,-1.8788375,1.7028837,-0.92,1.639965,1.4688609,1.9843268,-3.4219837,1.3256955,1.6526155,1.1120657,1.2324942,3.8884137,0.09856677,-1.6595113,-1.8892916,3.0316296,-0.62974966,1.6921681,2.5067794]},{"Bias":-1.2641759,"Weights":[0.046351075,-0.5216413,-1.1270684,-3.8846533,5.6572886,0.48,-0.4463188,0.58250296,-1.5545311,1.6131973,0.537778,0.65,-1.7535638,3.6853225,-3.2387607,-3.5666723,-2.1743617,-2.631537,-2.1766567,0.7523183,0.29082984,-1.0895066,5.949199,-1.5056438]},{"Bias":-0.91330564,"Weights":[-2.987552,-1.3874009,-7.5004554,-2.313875,-3.4963167,2.7809432,-3.2035983,-1.0903713,-0.053950846,1.7609842,-4.855545,-0.86901736,-5.025522,1.751681,-0.93587756,0.9922579,1.1838446,3.9590428,0.8712738,2.8381786,1.9226369,-1.0371691,0.1411817,1.0830225]},{"Bias":-1.092932,"Weights":[-1.352996,-4.283146,1.1930835,1.1524414,-1.4057992,2.7084265,-1.2255846,-1.8701011,-0.43505222,0.04131323,-0.93783325,3.5685685,0.79867166,-0.39059067,2.7520444,3.066515,1.1768508,2.1381066,-4.5885577,0.13034415,-3.4966724,2.2638988,0.40389344,-3.3071918]},{"Bias":-3.9089296,"Weights":[-0.94386816,0.35980868,-1.9058616,-0.43166655,0.9769511,-0.9888377,1.606399,1.4789519,1.9441257,1.4983921,2.8187914,0.64750266,-4.2361245,1.4018471,-1.8366284,-2.1820474,0.27281952,2.1573513,-1.3243289,-0.43851775,1.100996,-1.1364446,1.3941001,-0.32105345]},{"Bias":1.2622663,"Weights":[0.2111873,-3.6426885,-0.57469463,-1.3045249,-1.1676621,0.7030849,0.07,-1.6004863,0.3930452,1.4740251,0.15277296,-0.8734158,2.6979756,1.034316,4.6407166,1.5456929,-3.279156,3.9146647,3.324889,2.4898224,-1.1740016,2.1326258,1.1089848,-0.8807285]},{"Bias":-1.6302683,"Weights":[0.90081567,0.24378702,-0.27187076,2.7327752,-0.9671548,-0.6906568,0.60551935,4.4073763,-1.1161363,1.0286345,1.0274609,1.2109853,1.1185272,-2.2896597,2.206758,-0.9123595,1.8458774,-1.7288477,-0.96388453,-0.8474823,1.9419672,1.3929819,0.7432212,1.7422822]},{"Bias":-4.069386,"Weights":[-1.9914867,3.5814018,-1.4042614,-5.5372667,-0.7543276,-0.5,2.6082602,-0.3478163,-0.13382001,0.80983263,0.76989144,-0.568693,2.2244883,-2.0487247,2.478537,-1.1821179,-2.0667214,0.29168922,0.75925446,0.2966048,-2.465279,4.487985,-1.2412356,2.2434382]},{"Bias":0.8330461,"Weights":[-2.2366,0.30652985,1.1247464,-2.2850451,0.10419887,1.436701,0.7195199,0.010761023,-0.32760745,-0.35072985,1.8430855,1.0252696,3.0372272,-4.2667813,0.7406434,1.5864867,-3.980533,0.40858805,0.9150354,0.7046018,1.7441349,0.7751713,0.27239686,-1.6722405]}]},{"Neurons":[{"Bias":0.8165087,"Weights":[0.13931787,2.0814054,-0.35977656,-0.283336]},{"Bias":-7.775554,"Weights":[0.18748224,0.28428245,-3.9435258,4.334399]},{"Bias":-0.9315678,"Weights":[0.41322,1.5456417,-0.4259094,0.68076015]},{"Bias":2.9416642,"Weights":[-0.57336557,-0.98413235,-1.1233035,1.9619033]},{"Bias":1.7681645,"Weights":[0.67,1.8520927,0.35613117,0.44659606]},{"Bias":1.8597536,"Weights":[0.42,0.36331978,0.49211198,-2.0516238]},{"Bias":-0.17671007,"Weights":[0.13214585,-0.30206287,2.0613184,0.46465957]},{"Bias":5.022439,"Weights":[1.3085723,1.8383455,1.2567052,-0.010408223]},{"Bias":0.78709567,"Weights":[2.9050152,1.1835641,0.054111063,-0.26297998]},{"Bias":-0.09913874,"Weights":[0.18326122,-0.29097366,0.490561,-1.9116182]},{"Bias":0.75250554,"Weights":[-0.44762588,-0.45878685,-2.2434983,-0.66041464]},{"Bias":0.11205608,"Weights":[0.9158247,-0.68281734,-2.568029,1.5204855]},{"Bias":5.1971936,"Weights":[0.3706724,-1.0167316,0.16469097,0.8715954]},{"Bias":1.7180402,"Weights":[-2.4601011,-1.1281168,1.0945163,-0.7703109]},{"Bias":-1.7770562,"Weights":[-1.8119447,-3.6782162,-2.1290808,-3.4065425]},{"Bias":-1.2582604,"Weights":[0.8952957,-0.53631854,3.7179036,2.8637938]},{"Bias":3.9636612,"Weights":[-1.693156,1.3937845,3.4233158,-3.4065764]},{"Bias":-0.58015037,"Weights":[-0.17086647,-1.6045301,0.6847694,-2.64193]},{"Bias":-2.1243289,"Weights":[2.6046464,-0.39793944,-1.7366372,1.0625738]},{"Bias":1.13069,"Weights":[1.7649361,-5.5105286,0.64791536,2.4926748]},{"Bias":-3.157912,"Weights":[-1.0338643,0.48920643,-0.051496886,-2.0372043]},{"Bias":3.3077068,"Weights":[2.7097757,-1.0357292,-3.4924622,0.5837775]},{"Bias":-3.4211574,"Weights":[-1.6658648,-0.767552,0.6993918,0.49075446]},{"Bias":-6.739348,"Weights":[0.037164092,2.4381318,0.6568236,4.516383]}]},{"Neurons":[{"Bias":-2.1098938,"Weights":[]},{"Bias":-4.415679,"Weights":[]},{"Bias":-1.2748593,"Weights":[]},{"Bias":0.2633509,"Weights":[]}]}]}